digraph Tree {
node [shape=box, style="rounded", color="black", fontname="helvetica"] ;
edge [fontname="helvetica"] ;
0 [label="forecast_noaa <= 58.5\nsquared_error = 135.5\nsamples = 173\nvalue = 62.0"] ;
1 [label="average <= 47.5\nsquared_error = 56.3\nsamples = 95\nvalue = 53.4"] ;
0 -> 1 [labeldistance=2.5, labelangle=45, headlabel="True"] ;
2 [label="temp_1 <= 45.5\nsquared_error = 27.0\nsamples = 26\nvalue = 44.2"] ;
1 -> 2 ;
3 [label="squared_error = 12.4\nsamples = 15\nvalue = 41.0"] ;
2 -> 3 ;
4 [label="squared_error = 15.2\nsamples = 11\nvalue = 48.4"] ;
2 -> 4 ;
5 [label="temp_1 <= 55.5\nsquared_error = 24.0\nsamples = 69\nvalue = 56.8"] ;
1 -> 5 ;
6 [label="squared_error = 7.9\nsamples = 27\nvalue = 53.0"] ;
5 -> 6 ;
7 [label="squared_error = 15.6\nsamples = 42\nvalue = 59.9"] ;
5 -> 7 ;
8 [label="temp_1 <= 68.5\nsquared_error = 52.6\nsamples = 78\nvalue = 71.4"] ;
0 -> 8 [labeldistance=2.5, labelangle=-45, headlabel="False"] ;
9 [label="temp_1 <= 66.5\nsquared_error = 25.5\nsamples = 22\nvalue = 65.0"] ;
8 -> 9 ;
10 [label="squared_error = 16.9\nsamples = 11\nvalue = 62.6"] ;
9 -> 10 ;
11 [label="squared_error = 15.7\nsamples = 11\nvalue = 68.8"] ;
9 -> 11 ;
12 [label="temp_1 <= 86.0\nsquared_error = 35.9\nsamples = 56\nvalue = 74.6"] ;
8 -> 12 ;
13 [label="squared_error = 26.0\nsamples = 51\nvalue = 73.4"] ;
12 -> 13 ;
14 [label="squared_error = 17.9\nsamples = 5\nvalue = 83.5"] ;
12 -> 14 ;
}